digraph Tree {
node [shape=box, style="filled", color="black", fontname="helvetica"] ;
edge [fontname="helvetica"] ;
0 [label=" throat_irritation <= 0.5\ngini = 0.976\nsamples = 3690\nvalue = [92, 91, 90, 97, 93, 91, 90, 86, 91, 89, 95, 94\n91, 95, 83, 94, 89, 94, 90, 89, 84, 92, 75, 97\n90, 92, 93, 84, 92, 88, 90, 90, 86, 92, 81, 88\n87, 98, 91, 90, 86]\nclass = Acne", fillcolor="#ffffff"] ;
1 [label=" fluid_overload <= 0.5\ngini = 0.975\nsamples = 3595\nvalue = [92, 91, 90, 97, 93, 91, 90, 86, 91, 89, 0, 94\n91, 95, 83, 94, 89, 94, 90, 89, 84, 92, 75, 97\n90, 92, 93, 84, 92, 88, 90, 90, 86, 92, 81, 88\n87, 98, 91, 90, 86]\nclass = Acne", fillcolor="#ffffff"] ;
0 -> 1 [labeldistance=2.5, labelangle=45, headlabel="True"] ;
2 [label=" pain_behind_the_eyes <= 0.5\ngini = 0.974\nsamples = 3500\nvalue = [92, 91, 90, 2, 93, 91, 90, 86, 91, 89, 0, 94\n91, 95, 83, 94, 89, 94, 90, 89, 84, 92, 75, 97\n90, 92, 93, 84, 92, 88, 90, 90, 86, 92, 81, 88\n87, 98, 91, 90, 86]\nclass = Acne", fillcolor="#ffffff"] ;
1 -> 2 ;
3 [label=" belly_pain <= 0.5\ngini = 0.974\nsamples = 3406\nvalue = [92, 91, 90, 2, 93, 91, 90, 86, 91, 89, 0, 0\n91, 95, 83, 94, 89, 94, 90, 89, 84, 92, 75, 97\n90, 92, 93, 84, 92, 88, 90, 90, 86, 92, 81, 88\n87, 98, 91, 90, 86]\nclass = Acne", fillcolor="#ffffff"] ;
2 -> 3 ;
4 [label=" brittle_nails <= 0.5\ngini = 0.973\nsamples = 3312\nvalue = [92, 91, 90, 2, 93, 91, 90, 86, 91, 89, 0, 0\n91, 95, 83, 94, 89, 94, 90, 89, 84, 92, 75, 97\n90, 92, 93, 84, 92, 88, 90, 90, 86, 92, 81, 88\n87, 4, 91, 90, 86]\nclass = Hepatitis E", fillcolor="#ffffff"] ;
3 -> 4 ;
5 [label=" lack_of_concentration <= 0.5\ngini = 0.972\nsamples = 3219\nvalue = [92, 91, 90, 2, 93, 91, 90, 86, 91, 89, 0, 0\n91, 95, 83, 94, 89, 94, 90, 89, 84, 92, 75, 97\n90, 92, 0, 84, 92, 88, 90, 90, 86, 92, 81, 88\n87, 4, 91, 90, 86]\nclass = Hepatitis E", fillcolor="#ffffff"] ;
4 -> 5 ;
6 [label=" slurred_speech <= 0.5\ngini = 0.972\nsamples = 3126\nvalue = [92, 91, 90, 2, 93, 91, 90, 86, 91, 89, 0, 0\n91, 95, 83, 94, 89, 94, 90, 89, 84, 92, 75, 4\n90, 92, 0, 84, 92, 88, 90, 90, 86, 92, 81, 88\n87, 4, 91, 90, 86]\nclass = Paralysis (brain hemorrhage)", fillcolor="#ffffff"] ;
5 -> 6 ;
7 [label=" pain_in_anal_region <= 0.5\ngini = 0.971\nsamples = 3034\nvalue = [92, 91, 90, 2, 93, 91, 90, 86, 91, 89, 0, 0\n91, 95, 83, 94, 89, 94, 90, 89, 84, 92, 75, 4\n90, 0, 0, 84, 92, 88, 90, 90, 86, 92, 81, 88\n87, 4, 91, 90, 86]\nclass = Paralysis (brain hemorrhage)", fillcolor="#ffffff"] ;
6 -> 7 ;
8 [label=" polyuria <= 0.5\ngini = 0.97\nsamples = 2942\nvalue = [92, 91, 90, 2, 93, 91, 90, 86, 91, 89, 0, 0\n91, 3, 83, 94, 89, 94, 90, 89, 84, 92, 75, 4\n90, 0, 0, 84, 92, 88, 90, 90, 86, 92, 81, 88\n87, 4, 91, 90, 86]\nclass = Malaria", fillcolor="#ffffff"] ;
7 -> 8 ;
9 [label=" red_spots_over_body <= 0.5\ngini = 0.969\nsamples = 2851\nvalue = [92, 91, 90, 2, 93, 91, 90, 86, 91, 89, 0, 0, 0\n3, 83, 94, 89, 94, 90, 89, 84, 92, 75, 4, 90\n0, 0, 84, 92, 88, 90, 90, 86, 92, 81, 88, 87\n4, 91, 90, 86]\nclass = Malaria", fillcolor="#ffffff"] ;
8 -> 9 ;
10 [label=" abnormal_menstruation <= 0.5\ngini = 0.968\nsamples = 2760\nvalue = [92, 91, 90, 2, 93, 91, 90, 86, 0, 89, 0, 0, 0\n3, 83, 94, 89, 94, 90, 89, 84, 92, 75, 4, 90\n0, 0, 84, 92, 88, 90, 90, 86, 92, 81, 88, 87\n4, 91, 90, 86]\nclass = Malaria", fillcolor="#ffffff"] ;
9 -> 10 ;
11 [label=" receiving_unsterile_injections <= 0.5\ngini = 0.967\nsamples = 2670\nvalue = [92, 91, 90, 2, 93, 91, 90, 86, 0, 89, 0, 0, 0\n3, 83, 94, 89, 94, 90, 89, 84, 92, 75, 4, 0, 0\n0, 84, 92, 88, 90, 90, 86, 92, 81, 88, 87, 4\n91, 90, 86]\nclass = Malaria", fillcolor="#ffffff"] ;
10 -> 11 ;
12 [label=" depression <= 0.5\ngini = 0.966\nsamples = 2581\nvalue = [92, 91, 90, 2, 93, 91, 90, 86, 0, 89, 0, 0, 0\n3, 83, 94, 89, 94, 90, 0, 84, 92, 75, 4, 0, 0\n0, 84, 92, 88, 90, 90, 86, 92, 81, 88, 87, 4\n91, 90, 86]\nclass = Malaria", fillcolor="#ffffff"] ;
11 -> 12 ;
13 [label=" internal_itching <= 0.5\ngini = 0.965\nsamples = 2492\nvalue = [92, 91, 90, 2, 93, 91, 90, 86, 0, 89, 0, 0, 0\n3, 83, 94, 89, 94, 90, 0, 84, 92, 75, 4, 0, 0\n0, 84, 92, 88, 1, 90, 86, 92, 81, 88, 87, 4\n91, 90, 86]\nclass = Malaria", fillcolor="#ffffff"] ;
12 -> 13 ;
14 [label=" muscle_weakness <= 0.5\ngini = 0.963\nsamples = 2403\nvalue = [92, 91, 90, 2, 93, 91, 90, 86, 0, 89, 0, 0, 0\n3, 83, 94, 89, 94, 90, 0, 84, 92, 75, 4, 0, 0\n0, 84, 92, 88, 1, 90, 86, 3, 81, 88, 87, 4, 91\n90, 86]\nclass = Malaria", fillcolor="#ffffff"] ;
13 -> 14 ;
15 [label=" muscle_pain <= 0.5\ngini = 0.962\nsamples = 2315\nvalue = [92, 91, 90, 2, 93, 3, 90, 86, 0, 89, 0, 0, 0\n3, 83, 94, 89, 94, 90, 0, 84, 92, 75, 4, 0, 0\n0, 84, 92, 88, 1, 90, 86, 3, 81, 88, 87, 4, 91\n90, 86]\nclass = Malaria", fillcolor="#ffffff"] ;
14 -> 15 ;
16 [label=" diarrhoea <= 0.5\ngini = 0.959\nsamples = 2141\nvalue = [92, 91, 90, 2, 93, 3, 90, 86, 0, 89, 0, 0, 0\n3, 83, 94, 89, 94, 90, 0, 84, 92, 75, 4, 0, 0\n0, 84, 92, 0, 1, 90, 86, 3, 81, 88, 87, 4, 91\n90, 0]\nclass = Malaria", fillcolor="#ffffff"] ;
15 -> 16 ;
17 [label=" blood_in_sputum <= 0.5\ngini = 0.957\nsamples = 2045\nvalue = [92, 91, 90, 2, 93, 3, 90, 86, 0, 89, 0, 0, 0\n3, 83, 94, 89, 2, 90, 0, 84, 92, 75, 4, 0, 0\n0, 84, 92, 0, 1, 90, 86, 3, 81, 88, 87, 0, 91\n90, 0]\nclass = Malaria", fillcolor="#ffffff"] ;
16 -> 17 ;
18 [label=" bruising <= 0.5\ngini = 0.955\nsamples = 1958\nvalue = [92, 91, 90, 2, 93, 3, 90, 86, 0, 89, 0, 0, 0\n3, 83, 94, 89, 2, 90, 0, 84, 92, 75, 4, 0, 0\n0, 84, 92, 0, 1, 90, 86, 3, 81, 88, 0, 0, 91\n90, 0]\nclass = Malaria", fillcolor="#ffffff"] ;
17 -> 18 ;
19 [label=" continuous_feel_of_urine <= 0.5\ngini = 0.953\nsamples = 1871\nvalue = [92, 91, 90, 2, 93, 3, 90, 86, 0, 89, 0, 0, 0\n3, 83, 94, 89, 2, 90, 0, 84, 92, 75, 4, 0, 0\n0, 84, 92, 0, 1, 90, 86, 3, 81, 88, 0, 0, 91\n3, 0]\nclass = Malaria", fillcolor="#ffffff"] ;
18 -> 19 ;
20 [label=" weight_loss <= 0.5\ngini = 0.951\nsamples = 1784\nvalue = [92, 91, 90, 2, 93, 3, 90, 86, 0, 89, 0, 0, 0\n3, 83, 94, 89, 2, 90, 0, 84, 92, 75, 4, 0, 0\n0, 84, 92, 0, 1, 90, 86, 3, 81, 88, 0, 0, 4\n3, 0]\nclass = Malaria", fillcolor="#ffffff"] ;
19 -> 20 ;
21 [label=" knee_pain <= 0.5\ngini = 0.949\nsamples = 1697\nvalue = [92, 91, 90, 2, 93, 3, 90, 86, 0, 89, 0, 0, 0\n3, 83, 94, 89, 2, 90, 0, 84, 92, 75, 4, 0, 0\n0, 84, 5, 0, 1, 90, 86, 3, 81, 88, 0, 0, 4\n3, 0]\nclass = Malaria", fillcolor="#ffffff"] ;
20 -> 21 ;
22 [label=" unsteadiness <= 0.5\ngini = 0.947\nsamples = 1611\nvalue = [92, 91, 90, 2, 93, 3, 90, 86, 0, 89, 0, 0, 0\n3, 83, 94, 89, 2, 90, 0, 84, 92, 75, 4, 0, 0\n0, 84, 5, 0, 1, 4, 86, 3, 81, 88, 0, 0, 4, 3\n0]\nclass = Malaria", fillcolor="#ffffff"] ;
21 -> 22 ;
23 [label=" small_dents_in_nails <= 0.5\ngini = 0.944\nsamples = 1525\nvalue = [6, 91, 90, 2, 93, 3, 90, 86, 0, 89, 0, 0, 0\n3, 83, 94, 89, 2, 90, 0, 84, 92, 75, 4, 0, 0\n0, 84, 5, 0, 1, 4, 86, 3, 81, 88, 0, 0, 4, 3\n0]\nclass = Malaria", fillcolor="#ffffff"] ;
22 -> 23 ;
24 [label=" mucoid_sputum <= 0.5\ngini = 0.941\nsamples = 1440\nvalue = [6, 91, 90, 2, 93, 3, 90, 86, 0, 89, 0, 0, 0\n3, 83, 94, 89, 2, 90, 0, 84, 92, 75, 4, 0, 0\n0, 84, 5, 0, 1, 4, 86, 3, 81, 3, 0, 0, 4, 3\n0]\nclass = Malaria", fillcolor="#ffffff"] ;
23 -> 24 ;
25 [label=" shivering <= 0.5\ngini = 0.938\nsamples = 1355\nvalue = [6, 91, 90, 2, 93, 3, 5, 86, 0, 89, 0, 0, 0\n3, 83, 94, 89, 2, 90, 0, 84, 92, 75, 4, 0, 0\n0, 84, 5, 0, 1, 4, 86, 3, 81, 3, 0, 0, 4, 3\n0]\nclass = Malaria", fillcolor="#ffffff"] ;
24 -> 25 ;
26 [label=" altered_sensorium <= 0.5\ngini = 0.934\nsamples = 1270\nvalue = [6, 91, 90, 2, 8, 3, 5, 86, 0, 89, 0, 0, 0, 3\n83, 94, 89, 2, 90, 0, 84, 92, 75, 4, 0, 0, 0\n84, 5, 0, 1, 4, 86, 3, 81, 3, 0, 0, 4, 3, 0]\nclass = Malaria", fillcolor="#ffffff"] ;
25 -> 26 ;
27 [label=" dischromic _patches <= 0.5\ngini = 0.93\nsamples = 1187\nvalue = [6, 91, 90, 2, 8, 3, 5, 86, 0, 89, 0, 0, 0, 3\n83, 94, 89, 2, 90, 0, 84, 92, 75, 4, 0, 0, 0\n84, 5, 0, 1, 4, 3, 3, 81, 3, 0, 0, 4, 3, 0]\nclass = Malaria", fillcolor="#ffffff"] ;
26 -> 27 ;
28 [label=" patches_in_throat <= 0.5\ngini = 0.926\nsamples = 1103\nvalue = [6, 91, 90, 2, 8, 3, 5, 86, 0, 89, 0, 0, 0, 3\n83, 10, 89, 2, 90, 0, 84, 92, 75, 4, 0, 0, 0\n84, 5, 0, 1, 4, 3, 3, 81, 3, 0, 0, 4, 3, 0]\nclass = Hepatitis C", fillcolor="#ffffff"] ;
27 -> 28 ;
29 [label=" rusty_sputum <= 0.5\ngini = 0.922\nsamples = 1020\nvalue = [6, 8, 90, 2, 8, 3, 5, 86, 0, 89, 0, 0, 0, 3\n83, 10, 89, 2, 90, 0, 84, 92, 75, 4, 0, 0, 0\n84, 5, 0, 1, 4, 3, 3, 81, 3, 0, 0, 4, 3, 0]\nclass = Hepatitis C", fillcolor="#ffffff"] ;
28 -> 29 ;
30 [label=" chest_pain <= 0.5\ngini = 0.915\nsamples = 939\nvalue = [6, 8, 90, 2, 8, 3, 5, 86, 0, 89, 0, 0, 0, 3\n83, 10, 89, 2, 90, 0, 84, 92, 75, 4, 0, 0, 0\n84, 5, 0, 1, 4, 3, 3, 0, 3, 0, 0, 4, 3, 0]\nclass = Hepatitis C", fillcolor="#ffffff"] ;
29 -> 30 ;
31 [label=" dizziness <= 0.5\ngini = 0.899\nsamples = 763\nvalue = [6, 8, 90, 2, 8, 3, 5, 86, 0, 89, 0, 0, 0, 3\n83, 10, 3, 2, 4, 0, 84, 92, 75, 0, 0, 0, 0\n84, 5, 0, 1, 4, 3, 3, 0, 3, 0, 0, 4, 3, 0]\nclass = Hepatitis C", fillcolor="#feffff"] ;
30 -> 31 ;
32 [label=" red_sore_around_nose <= 0.5\ngini = 0.889\nsamples = 680\nvalue = [6, 8, 90, 2, 8, 3, 5, 3, 0, 89, 0, 0, 0, 3\n83, 10, 3, 2, 4, 0, 84, 92, 75, 0, 0, 0, 0\n84, 5, 0, 1, 4, 3, 3, 0, 3, 0, 0, 4, 3, 0]\nclass = Hepatitis C", fillcolor="#feffff"] ;
31 -> 32 ;
33 [label=" scurring <= 0.5\ngini = 0.876\nsamples = 599\nvalue = [6, 8, 90, 2, 8, 3, 5, 3, 0, 89, 0, 0, 0, 3\n83, 10, 3, 2, 4, 0, 84, 92, 75, 0, 0, 0, 0\n3, 5, 0, 1, 4, 3, 3, 0, 3, 0, 0, 4, 3, 0]\nclass = Hepatitis C", fillcolor="#feffff"] ;
32 -> 33 ;
34 [label=" stomach_bleeding <= 0.5\ngini = 0.864\nsamples = 518\nvalue = [6, 8, 9, 2, 8, 3, 5, 3, 0, 89, 0, 0, 0, 3\n83, 10, 3, 2, 4, 0, 84, 92, 75, 0, 0, 0, 0\n3, 5, 0, 1, 4, 3, 3, 0, 3, 0, 0, 4, 3, 0]\nclass = Hepatitis C", fillcolor="#fefeff"] ;
33 -> 34 ;
35 [label=" dark_urine <= 0.5\ngini = 0.843\nsamples = 443\nvalue = [6, 8, 9, 2, 8, 3, 5, 3, 0, 89, 0, 0, 0, 3\n83, 10, 3, 2, 4, 0, 84, 92, 0, 0, 0, 0, 0, 3\n5, 0, 1, 4, 3, 3, 0, 3, 0, 0, 4, 3, 0]\nclass = Hepatitis C", fillcolor="#fdfeff"] ;
34 -> 35 ;
36 [label=" abdominal_pain <= 0.5\ngini = 0.818\nsamples = 351\nvalue = [6, 8, 9, 2, 8, 3, 5, 3, 0, 89, 0, 0, 0, 3\n83, 10, 3, 2, 4, 0, 84, 5, 0, 0, 0, 0, 0, 3\n0, 0, 1, 4, 3, 3, 0, 3, 0, 0, 4, 3, 0]\nclass = Bronchial Asthma", fillcolor="#fcfffb"] ;
35 -> 36 ;
37 [label=" nausea <= 0.5\ngini = 0.778\nsamples = 255\nvalue = [6, 8, 9, 0, 8, 3, 5, 3, 0, 3, 0, 0, 0, 3\n83, 10, 3, 2, 4, 0, 84, 0, 0, 0, 0, 0, 0, 3\n0, 0, 1, 4, 3, 0, 0, 3, 0, 0, 4, 3, 0]\nclass = Hepatitis B", fillcolor="#feffff"] ;
36 -> 37 ;
38 [label="gini = 0.723\nsamples = 163\nvalue = [0, 8, 9, 0, 8, 3, 5, 3, 0, 0, 0, 0, 0, 3\n83, 10, 3, 2, 4, 0, 1, 0, 0, 0, 0, 0, 0, 3\n0, 0, 1, 4, 3, 0, 0, 3, 0, 0, 4, 3, 0]\nclass = Jaundice", fillcolor="#a1f3c5"] ;
37 -> 38 ;
39 [label="gini = 0.181\nsamples = 92\nvalue = [6, 0, 0, 0, 0, 0, 0, 0, 0, 3, 0, 0, 0, 0\n0, 0, 0, 0, 0, 0, 83, 0, 0, 0, 0, 0, 0, 0\n0, 0, 0, 0, 0, 0, 0, 0, 0, 0, 0, 0, 0]\nclass = Hepatitis B", fillcolor="#4eb5e8"] ;
37 -> 39 ;
40 [label="gini = 0.193\nsamples = 96\nvalue = [0, 0, 0, 2, 0, 0, 0, 0, 0, 86, 0, 0, 0, 0\n0, 0, 0, 0, 0, 0, 0, 5, 0, 0, 0, 0, 0, 0\n0, 0, 0, 0, 0, 3, 0, 0, 0, 0, 0, 0, 0]\nclass = Bronchial Asthma", fillcolor="#78e84f"] ;
36 -> 40 ;
41 [label="gini = 0.103\nsamples = 92\nvalue = [0, 0, 0, 0, 0, 0, 0, 0, 0, 0, 0, 0, 0, 0\n0, 0, 0, 0, 0, 0, 0, 87, 0, 0, 0, 0, 0, 0\n5, 0, 0, 0, 0, 0, 0, 0, 0, 0, 0, 0, 0]\nclass = Hepatitis C", fillcolor="#4498e6"] ;
35 -> 41 ;
42 [label="gini = 0.0\nsamples = 75\nvalue = [0, 0, 0, 0, 0, 0, 0, 0, 0, 0, 0, 0, 0, 0\n0, 0, 0, 0, 0, 0, 0, 0, 75, 0, 0, 0, 0, 0\n0, 0, 0, 0, 0, 0, 0, 0, 0, 0, 0, 0, 0]\nclass = Hepatitis D", fillcolor="#3978e5"] ;
34 -> 42 ;
43 [label="gini = 0.0\nsamples = 81\nvalue = [0, 0, 81, 0, 0, 0, 0, 0, 0, 0, 0, 0, 0, 0\n0, 0, 0, 0, 0, 0, 0, 0, 0, 0, 0, 0, 0, 0\n0, 0, 0, 0, 0, 0, 0, 0, 0, 0, 0, 0, 0]\nclass = GERD", fillcolor="#e5b139"] ;
33 -> 43 ;
44 [label="gini = 0.0\nsamples = 81\nvalue = [0, 0, 0, 0, 0, 0, 0, 0, 0, 0, 0, 0, 0, 0\n0, 0, 0, 0, 0, 0, 0, 0, 0, 0, 0, 0, 0, 81\n0, 0, 0, 0, 0, 0, 0, 0, 0, 0, 0, 0, 0]\nclass = Pneumonia", fillcolor="#7839e5"] ;
32 -> 44 ;
45 [label="gini = 0.0\nsamples = 83\nvalue = [0, 0, 0, 0, 0, 0, 0, 83, 0, 0, 0, 0, 0, 0\n0, 0, 0, 0, 0, 0, 0, 0, 0, 0, 0, 0, 0, 0\n0, 0, 0, 0, 0, 0, 0, 0, 0, 0, 0, 0, 0]\nclass = Diabetes ", fillcolor="#9ae539"] ;
31 -> 45 ;
46 [label=" cough <= 0.5\ngini = 0.522\nsamples = 176\nvalue = [0, 0, 0, 0, 0, 0, 0, 0, 0, 0, 0, 0, 0, 0\n0, 0, 86, 0, 86, 0, 0, 0, 0, 4, 0, 0, 0, 0\n0, 0, 0, 0, 0, 0, 0, 0, 0, 0, 0, 0, 0]\nclass = Chicken pox", fillcolor="#ffffff"] ;
30 -> 46 ;
47 [label="gini = 0.142\nsamples = 93\nvalue = [0, 0, 0, 0, 0, 0, 0, 0, 0, 0, 0, 0, 0, 0\n0, 0, 3, 0, 86, 0, 0, 0, 0, 4, 0, 0, 0, 0\n0, 0, 0, 0, 0, 0, 0, 0, 0, 0, 0, 0, 0]\nclass = Typhoid", fillcolor="#49dfe7"] ;
46 -> 47 ;
48 [label="gini = 0.0\nsamples = 83\nvalue = [0, 0, 0, 0, 0, 0, 0, 0, 0, 0, 0, 0, 0, 0\n0, 0, 83, 0, 0, 0, 0, 0, 0, 0, 0, 0, 0, 0\n0, 0, 0, 0, 0, 0, 0, 0, 0, 0, 0, 0, 0]\nclass = Chicken pox", fillcolor="#39e5ba"] ;
46 -> 48 ;
49 [label="gini = 0.0\nsamples = 81\nvalue = [0, 0, 0, 0, 0, 0, 0, 0, 0, 0, 0, 0, 0, 0\n0, 0, 0, 0, 0, 0, 0, 0, 0, 0, 0, 0, 0, 0\n0, 0, 0, 0, 0, 0, 81, 0, 0, 0, 0, 0, 0]\nclass = Osteoarthristis", fillcolor="#e539a3"] ;
29 -> 49 ;
50 [label="gini = 0.0\nsamples = 83\nvalue = [0, 83, 0, 0, 0, 0, 0, 0, 0, 0, 0, 0, 0, 0\n0, 0, 0, 0, 0, 0, 0, 0, 0, 0, 0, 0, 0, 0\n0, 0, 0, 0, 0, 0, 0, 0, 0, 0, 0, 0, 0]\nclass = Allergy", fillcolor="#e59839"] ;
28 -> 50 ;
51 [label="gini = 0.0\nsamples = 84\nvalue = [0, 0, 0, 0, 0, 0, 0, 0, 0, 0, 0, 0, 0, 0\n0, 84, 0, 0, 0, 0, 0, 0, 0, 0, 0, 0, 0, 0\n0, 0, 0, 0, 0, 0, 0, 0, 0, 0, 0, 0, 0]\nclass = Malaria", fillcolor="#39e5a0"] ;
27 -> 51 ;
52 [label="gini = 0.0\nsamples = 83\nvalue = [0, 0, 0, 0, 0, 0, 0, 0, 0, 0, 0, 0, 0, 0\n0, 0, 0, 0, 0, 0, 0, 0, 0, 0, 0, 0, 0, 0\n0, 0, 0, 0, 83, 0, 0, 0, 0, 0, 0, 0, 0]\nclass = Hyperthyroidism", fillcolor="#e539d7"] ;
26 -> 52 ;
53 [label="gini = 0.0\nsamples = 85\nvalue = [0, 0, 0, 0, 85, 0, 0, 0, 0, 0, 0, 0, 0, 0\n0, 0, 0, 0, 0, 0, 0, 0, 0, 0, 0, 0, 0, 0\n0, 0, 0, 0, 0, 0, 0, 0, 0, 0, 0, 0, 0]\nclass = Drug Reaction", fillcolor="#e5e539"] ;
25 -> 53 ;
54 [label="gini = 0.0\nsamples = 85\nvalue = [0, 0, 0, 0, 0, 0, 85, 0, 0, 0, 0, 0, 0, 0\n0, 0, 0, 0, 0, 0, 0, 0, 0, 0, 0, 0, 0, 0\n0, 0, 0, 0, 0, 0, 0, 0, 0, 0, 0, 0, 0]\nclass = AIDS", fillcolor="#b4e539"] ;
24 -> 54 ;
55 [label="gini = 0.0\nsamples = 85\nvalue = [0, 0, 0, 0, 0, 0, 0, 0, 0, 0, 0, 0, 0, 0\n0, 0, 0, 0, 0, 0, 0, 0, 0, 0, 0, 0, 0, 0\n0, 0, 0, 0, 0, 0, 0, 85, 0, 0, 0, 0, 0]\nclass = Arthritis", fillcolor="#e53989"] ;
23 -> 55 ;
56 [label="gini = 0.0\nsamples = 86\nvalue = [86, 0, 0, 0, 0, 0, 0, 0, 0, 0, 0, 0, 0, 0\n0, 0, 0, 0, 0, 0, 0, 0, 0, 0, 0, 0, 0, 0\n0, 0, 0, 0, 0, 0, 0, 0, 0, 0, 0, 0, 0]\nclass = Fungal infection", fillcolor="#e58139"] ;
22 -> 56 ;
57 [label="gini = 0.0\nsamples = 86\nvalue = [0, 0, 0, 0, 0, 0, 0, 0, 0, 0, 0, 0, 0, 0\n0, 0, 0, 0, 0, 0, 0, 0, 0, 0, 0, 0, 0, 0\n0, 0, 0, 86, 0, 0, 0, 0, 0, 0, 0, 0, 0]\nclass = Hypothyroidism", fillcolor="#dc39e5"] ;
21 -> 57 ;
58 [label="gini = 0.0\nsamples = 87\nvalue = [0, 0, 0, 0, 0, 0, 0, 0, 0, 0, 0, 0, 0, 0\n0, 0, 0, 0, 0, 0, 0, 0, 0, 0, 0, 0, 0, 0\n87, 0, 0, 0, 0, 0, 0, 0, 0, 0, 0, 0, 0]\nclass = Dimorphic hemmorhoids(piles)", fillcolor="#8f39e5"] ;
20 -> 58 ;
59 [label="gini = 0.0\nsamples = 87\nvalue = [0, 0, 0, 0, 0, 0, 0, 0, 0, 0, 0, 0, 0, 0\n0, 0, 0, 0, 0, 0, 0, 0, 0, 0, 0, 0, 0, 0\n0, 0, 0, 0, 0, 0, 0, 0, 0, 0, 87, 0, 0]\nclass = Urinary tract infection", fillcolor="#e5393f"] ;
19 -> 59 ;
60 [label="gini = 0.0\nsamples = 87\nvalue = [0, 0, 0, 0, 0, 0, 0, 0, 0, 0, 0, 0, 0, 0\n0, 0, 0, 0, 0, 0, 0, 0, 0, 0, 0, 0, 0, 0\n0, 0, 0, 0, 0, 0, 0, 0, 0, 0, 0, 87, 0]\nclass = Psoriasis", fillcolor="#e54d39"] ;
18 -> 60 ;
61 [label="gini = 0.0\nsamples = 87\nvalue = [0, 0, 0, 0, 0, 0, 0, 0, 0, 0, 0, 0, 0, 0\n0, 0, 0, 0, 0, 0, 0, 0, 0, 0, 0, 0, 0, 0\n0, 0, 0, 0, 0, 0, 0, 0, 87, 0, 0, 0, 0]\nclass = (vertigo) Paroymsal  Positional Vertigo", fillcolor="#e5396f"] ;
17 -> 61 ;
62 [label="gini = 0.08\nsamples = 96\nvalue = [0, 0, 0, 0, 0, 0, 0, 0, 0, 0, 0, 0, 0, 0\n0, 0, 0, 92, 0, 0, 0, 0, 0, 0, 0, 0, 0, 0\n0, 0, 0, 0, 0, 0, 0, 0, 0, 4, 0, 0, 0]\nclass = Dengue", fillcolor="#42e6d6"] ;
16 -> 62 ;
63 [label=" yellowing_of_eyes <= 0.5\ngini = 0.5\nsamples = 174\nvalue = [0, 0, 0, 0, 0, 0, 0, 0, 0, 0, 0, 0, 0, 0\n0, 0, 0, 0, 0, 0, 0, 0, 0, 0, 0, 0, 0, 0\n0, 88, 0, 0, 0, 0, 0, 0, 0, 0, 0, 0, 86]\nclass = Heart attack", fillcolor="#fdfafe"] ;
15 -> 63 ;
64 [label="gini = 0.0\nsamples = 88\nvalue = [0, 0, 0, 0, 0, 0, 0, 0, 0, 0, 0, 0, 0, 0\n0, 0, 0, 0, 0, 0, 0, 0, 0, 0, 0, 0, 0, 0\n0, 88, 0, 0, 0, 0, 0, 0, 0, 0, 0, 0, 0]\nclass = Heart attack", fillcolor="#a939e5"] ;
63 -> 64 ;
65 [label="gini = 0.0\nsamples = 86\nvalue = [0, 0, 0, 0, 0, 0, 0, 0, 0, 0, 0, 0, 0, 0\n0, 0, 0, 0, 0, 0, 0, 0, 0, 0, 0, 0, 0, 0\n0, 0, 0, 0, 0, 0, 0, 0, 0, 0, 0, 0, 86]\nclass = Impetigo", fillcolor="#e56739"] ;
63 -> 65 ;
66 [label="gini = 0.0\nsamples = 88\nvalue = [0, 0, 0, 0, 0, 88, 0, 0, 0, 0, 0, 0, 0, 0\n0, 0, 0, 0, 0, 0, 0, 0, 0, 0, 0, 0, 0, 0\n0, 0, 0, 0, 0, 0, 0, 0, 0, 0, 0, 0, 0]\nclass = Peptic ulcer diseae", fillcolor="#cee539"] ;
14 -> 66 ;
67 [label="gini = 0.0\nsamples = 89\nvalue = [0, 0, 0, 0, 0, 0, 0, 0, 0, 0, 0, 0, 0, 0\n0, 0, 0, 0, 0, 0, 0, 0, 0, 0, 0, 0, 0, 0\n0, 0, 0, 0, 0, 89, 0, 0, 0, 0, 0, 0, 0]\nclass = Hypoglycemia", fillcolor="#e539bd"] ;
13 -> 67 ;
68 [label="gini = 0.0\nsamples = 89\nvalue = [0, 0, 0, 0, 0, 0, 0, 0, 0, 0, 0, 0, 0, 0\n0, 0, 0, 0, 0, 0, 0, 0, 0, 0, 0, 0, 0, 0\n0, 0, 89, 0, 0, 0, 0, 0, 0, 0, 0, 0, 0]\nclass = Varicose veins", fillcolor="#c339e5"] ;
12 -> 68 ;
69 [label="gini = 0.0\nsamples = 89\nvalue = [0, 0, 0, 0, 0, 0, 0, 0, 0, 0, 0, 0, 0, 0\n0, 0, 0, 0, 0, 89, 0, 0, 0, 0, 0, 0, 0, 0\n0, 0, 0, 0, 0, 0, 0, 0, 0, 0, 0, 0, 0]\nclass = hepatitis A", fillcolor="#39c5e5"] ;
11 -> 69 ;
70 [label="gini = 0.0\nsamples = 90\nvalue = [0, 0, 0, 0, 0, 0, 0, 0, 0, 0, 0, 0, 0, 0\n0, 0, 0, 0, 0, 0, 0, 0, 0, 0, 90, 0, 0, 0\n0, 0, 0, 0, 0, 0, 0, 0, 0, 0, 0, 0, 0]\nclass = Alcoholic hepatitis", fillcolor="#3947e5"] ;
10 -> 70 ;
71 [label="gini = 0.0\nsamples = 91\nvalue = [0, 0, 0, 0, 0, 0, 0, 0, 91, 0, 0, 0, 0, 0\n0, 0, 0, 0, 0, 0, 0, 0, 0, 0, 0, 0, 0, 0\n0, 0, 0, 0, 0, 0, 0, 0, 0, 0, 0, 0, 0]\nclass = Gastroenteritis", fillcolor="#81e539"] ;
9 -> 71 ;
72 [label="gini = 0.0\nsamples = 91\nvalue = [0, 0, 0, 0, 0, 0, 0, 0, 0, 0, 0, 0, 91, 0\n0, 0, 0, 0, 0, 0, 0, 0, 0, 0, 0, 0, 0, 0\n0, 0, 0, 0, 0, 0, 0, 0, 0, 0, 0, 0, 0]\nclass = Cervical spondylosis", fillcolor="#39e556"] ;
8 -> 72 ;
73 [label="gini = 0.0\nsamples = 92\nvalue = [0, 0, 0, 0, 0, 0, 0, 0, 0, 0, 0, 0, 0, 92\n0, 0, 0, 0, 0, 0, 0, 0, 0, 0, 0, 0, 0, 0\n0, 0, 0, 0, 0, 0, 0, 0, 0, 0, 0, 0, 0]\nclass = Paralysis (brain hemorrhage)", fillcolor="#39e56f"] ;
7 -> 73 ;
74 [label="gini = 0.0\nsamples = 92\nvalue = [0, 0, 0, 0, 0, 0, 0, 0, 0, 0, 0, 0, 0, 0\n0, 0, 0, 0, 0, 0, 0, 0, 0, 0, 0, 92, 0, 0\n0, 0, 0, 0, 0, 0, 0, 0, 0, 0, 0, 0, 0]\nclass = Tuberculosis", fillcolor="#4439e5"] ;
6 -> 74 ;
75 [label="gini = 0.0\nsamples = 93\nvalue = [0, 0, 0, 0, 0, 0, 0, 0, 0, 0, 0, 0, 0, 0\n0, 0, 0, 0, 0, 0, 0, 0, 0, 93, 0, 0, 0, 0\n0, 0, 0, 0, 0, 0, 0, 0, 0, 0, 0, 0, 0]\nclass = Hepatitis E", fillcolor="#3961e5"] ;
5 -> 75 ;
76 [label="gini = 0.0\nsamples = 93\nvalue = [0, 0, 0, 0, 0, 0, 0, 0, 0, 0, 0, 0, 0, 0\n0, 0, 0, 0, 0, 0, 0, 0, 0, 0, 0, 0, 93, 0\n0, 0, 0, 0, 0, 0, 0, 0, 0, 0, 0, 0, 0]\nclass = Common Cold", fillcolor="#5e39e5"] ;
4 -> 76 ;
77 [label="gini = 0.0\nsamples = 94\nvalue = [0, 0, 0, 0, 0, 0, 0, 0, 0, 0, 0, 0, 0, 0\n0, 0, 0, 0, 0, 0, 0, 0, 0, 0, 0, 0, 0, 0\n0, 0, 0, 0, 0, 0, 0, 0, 0, 94, 0, 0, 0]\nclass = Acne", fillcolor="#e53958"] ;
3 -> 77 ;
78 [label="gini = 0.0\nsamples = 94\nvalue = [0, 0, 0, 0, 0, 0, 0, 0, 0, 0, 0, 94, 0, 0\n0, 0, 0, 0, 0, 0, 0, 0, 0, 0, 0, 0, 0, 0\n0, 0, 0, 0, 0, 0, 0, 0, 0, 0, 0, 0, 0]\nclass = Migraine", fillcolor="#39e53c"] ;
2 -> 78 ;
79 [label="gini = 0.0\nsamples = 95\nvalue = [0, 0, 0, 95, 0, 0, 0, 0, 0, 0, 0, 0, 0, 0\n0, 0, 0, 0, 0, 0, 0, 0, 0, 0, 0, 0, 0, 0\n0, 0, 0, 0, 0, 0, 0, 0, 0, 0, 0, 0, 0]\nclass = Chronic cholestasis", fillcolor="#e5cb39"] ;
1 -> 79 ;
80 [label="gini = 0.0\nsamples = 95\nvalue = [0, 0, 0, 0, 0, 0, 0, 0, 0, 0, 95, 0, 0, 0\n0, 0, 0, 0, 0, 0, 0, 0, 0, 0, 0, 0, 0, 0\n0, 0, 0, 0, 0, 0, 0, 0, 0, 0, 0, 0, 0]\nclass = Hypertension ", fillcolor="#50e539"] ;
0 -> 80 [labeldistance=2.5, labelangle=-45, headlabel="False"] ;
}